Language model created by QuickLM on Sat Jan 21 13:09:44 EST 2017
Copyright (c) 1996-2010 Carnegie Mellon University and Alexander I. Rudnicky

The model is in standard ARPA format, designed by Doug Paul while he was at MITRE.

The code that was used to produce this language model is available in Open Source.
Please visit http://www.speech.cs.cmu.edu/tools/ for more information

The (fixed) discount mass is 0.5. The backoffs are computed using the ratio method.
This model based on a corpus of 27 sentences and 31 words

\data\
ngram 1=31
ngram 2=61
ngram 3=58

\1-grams:
-0.9560 </s> -0.3010
-0.9560 <s> -0.2338
-1.9103 A -0.2957
-1.9103 ARCHIE -0.2501
-1.9103 ARE -0.2939
-2.3874 DO -0.2939
-2.3874 DOING -0.2501
-2.3874 FEEL -0.2501
-2.3874 GIVE -0.2975
-2.0864 GOING -0.2501
-2.3874 GREETINGS -0.2501
-2.0864 HELLO -0.2441
-2.0864 HEY -0.2441
-2.0864 HI -0.2441
-1.6884 HOW -0.2884
-2.3874 HOW'S -0.2957
-2.3874 HOWDY -0.2501
-1.9103 IS -0.2884
-1.9103 IT -0.2461
-2.0864 ME -0.2884
-2.0864 MUSIC -0.2501
-1.7853 PLAY -0.2379
-1.9103 SING -0.2400
-2.3874 SOME -0.2975
-1.9103 SONG -0.2501
-1.7853 THE -0.2902
-1.6092 TIME -0.2441
-2.3874 TODAY -0.2501
-2.0864 WHAT -0.2847
-2.3874 WHAT'S -0.2939
-1.7853 YOU -0.2441

\2-grams:
-1.7324 <s> GIVE 0.0000
-1.7324 <s> GREETINGS 0.0000
-1.4314 <s> HELLO 0.0000
-1.4314 <s> HEY 0.0000
-1.4314 <s> HI 0.0000
-1.0334 <s> HOW 0.0000
-1.7324 <s> HOW'S 0.0000
-1.7324 <s> HOWDY 0.0000
-1.1303 <s> PLAY 0.0000
-1.2553 <s> SING 0.0000
-1.7324 <s> THE 0.0000
-1.7324 <s> TIME -0.0669
-1.4314 <s> WHAT 0.0000
-1.7324 <s> WHAT'S 0.0000
-0.3010 A SONG 0.0000
-0.3010 ARCHIE </s> -0.3010
-0.3010 ARE YOU -0.0969
-0.3010 DO YOU -0.2430
-0.3010 DOING </s> -0.3010
-0.3010 FEEL </s> -0.3010
-0.3010 GIVE ME -0.1761
-0.3010 GOING </s> -0.3010
-0.3010 GREETINGS </s> -0.3010
-0.6021 HELLO </s> -0.3010
-0.6021 HELLO ARCHIE 0.0000
-0.6021 HEY </s> -0.3010
-0.6021 HEY ARCHIE 0.0000
-0.6021 HI </s> -0.3010
-0.6021 HI ARCHIE 0.0000
-0.5229 HOW ARE 0.0000
-1.0000 HOW DO 0.0000
-1.0000 HOW IS -0.1249
-0.3010 HOW'S IT -0.1249
-0.3010 HOWDY </s> -0.3010
-0.4771 IS IT 0.0000
-0.7782 IS THE 0.0000
-0.7782 IT </s> -0.3010
-0.4771 IT GOING 0.0000
-0.6021 ME A 0.0000
-0.6021 ME THE 0.0000
-0.3010 MUSIC </s> -0.3010
-0.9031 PLAY </s> -0.3010
-0.9031 PLAY A 0.0000
-0.9031 PLAY MUSIC 0.0000
-0.9031 PLAY SOME 0.0000
-0.7782 SING </s> -0.3010
-0.7782 SING A 0.0000
-0.7782 SING ME -0.1761
-0.3010 SOME MUSIC 0.0000
-0.3010 SONG </s> -0.3010
-0.3010 THE TIME -0.0669
-0.3802 TIME </s> -0.3010
-1.0792 TIME IS -0.1249
-0.3010 TODAY </s> -0.3010
-0.6021 WHAT IS -0.2218
-0.6021 WHAT TIME -0.2632
-0.3010 WHAT'S THE 0.0000
-0.9031 YOU </s> -0.3010
-0.9031 YOU DOING 0.0000
-0.9031 YOU FEEL 0.0000
-0.9031 YOU TODAY 0.0000

\3-grams:
-0.3010 <s> GIVE ME
-0.3010 <s> GREETINGS </s>
-0.6021 <s> HELLO </s>
-0.6021 <s> HELLO ARCHIE
-0.6021 <s> HEY </s>
-0.6021 <s> HEY ARCHIE
-0.6021 <s> HI </s>
-0.6021 <s> HI ARCHIE
-0.5229 <s> HOW ARE
-1.0000 <s> HOW DO
-1.0000 <s> HOW IS
-0.3010 <s> HOW'S IT
-0.3010 <s> HOWDY </s>
-0.9031 <s> PLAY </s>
-0.9031 <s> PLAY A
-0.9031 <s> PLAY MUSIC
-0.9031 <s> PLAY SOME
-0.7782 <s> SING </s>
-0.7782 <s> SING A
-0.7782 <s> SING ME
-0.3010 <s> THE TIME
-0.3010 <s> TIME </s>
-0.6021 <s> WHAT IS
-0.6021 <s> WHAT TIME
-0.3010 <s> WHAT'S THE
-0.3010 A SONG </s>
-0.7782 ARE YOU </s>
-0.7782 ARE YOU DOING
-0.7782 ARE YOU TODAY
-0.3010 DO YOU FEEL
-0.3010 GIVE ME THE
-0.3010 HELLO ARCHIE </s>
-0.3010 HEY ARCHIE </s>
-0.3010 HI ARCHIE </s>
-0.3010 HOW ARE YOU
-0.3010 HOW DO YOU
-0.3010 HOW IS IT
-0.3010 HOW'S IT GOING
-0.6021 IS IT </s>
-0.6021 IS IT GOING
-0.3010 IS THE TIME
-0.3010 IT GOING </s>
-0.3010 ME A SONG
-0.3010 ME THE TIME
-0.3010 PLAY A SONG
-0.3010 PLAY MUSIC </s>
-0.3010 PLAY SOME MUSIC
-0.3010 SING A SONG
-0.3010 SING ME A
-0.3010 SOME MUSIC </s>
-0.3010 THE TIME </s>
-0.3010 TIME IS IT
-0.3010 WHAT IS THE
-0.3010 WHAT TIME IS
-0.3010 WHAT'S THE TIME
-0.3010 YOU DOING </s>
-0.3010 YOU FEEL </s>
-0.3010 YOU TODAY </s>

\end\
